digraph Tree {
node [shape=box] ;
0 [label="X[13] <= 0.5\ngini = 0.2705\nsamples = 1470\nvalue = [1233, 237]"] ;
1 [label="X[18] <= 2.5\ngini = 0.1869\nsamples = 1054\nvalue = [944, 110]"] ;
0 -> 1 [labeldistance=2.5, labelangle=45, headlabel="True"] ;
2 [label="X[37] <= 0.5\ngini = 0.4419\nsamples = 88\nvalue = [59, 29]"] ;
1 -> 2 ;
3 [label="X[4] <= 1.5\ngini = 0.495\nsamples = 60\nvalue = [33, 27]"] ;
2 -> 3 ;
4 [label="X[10] <= 3003.0\ngini = 0.1975\nsamples = 9\nvalue = [1, 8]"] ;
3 -> 4 ;
5 [label="gini = 0.0\nsamples = 8\nvalue = [0, 8]"] ;
4 -> 5 ;
6 [label="gini = 0.0\nsamples = 1\nvalue = [1, 0]"] ;
4 -> 6 ;
7 [label="X[10] <= 1927.5\ngini = 0.4675\nsamples = 51\nvalue = [32, 19]"] ;
3 -> 7 ;
8 [label="X[14] <= 13.5\ngini = 0.4444\nsamples = 15\nvalue = [5, 10]"] ;
7 -> 8 ;
9 [label="X[11] <= 10654.5\ngini = 0.2188\nsamples = 8\nvalue = [1, 7]"] ;
8 -> 9 ;
10 [label="gini = 0.0\nsamples = 1\nvalue = [1, 0]"] ;
9 -> 10 ;
11 [label="gini = 0.0\nsamples = 7\nvalue = [0, 7]"] ;
9 -> 11 ;
12 [label="X[11] <= 13372.0\ngini = 0.4898\nsamples = 7\nvalue = [4, 3]"] ;
8 -> 12 ;
13 [label="gini = 0.0\nsamples = 2\nvalue = [0, 2]"] ;
12 -> 13 ;
14 [label="X[1] <= 1.5\ngini = 0.32\nsamples = 5\nvalue = [4, 1]"] ;
12 -> 14 ;
15 [label="gini = 0.0\nsamples = 4\nvalue = [4, 0]"] ;
14 -> 15 ;
16 [label="gini = 0.0\nsamples = 1\nvalue = [0, 1]"] ;
14 -> 16 ;
17 [label="X[6] <= 1.5\ngini = 0.375\nsamples = 36\nvalue = [27, 9]"] ;
7 -> 17 ;
18 [label="gini = 0.0\nsamples = 2\nvalue = [0, 2]"] ;
17 -> 18 ;
19 [label="X[2] <= 11.0\ngini = 0.327\nsamples = 34\nvalue = [27, 7]"] ;
17 -> 19 ;
20 [label="X[0] <= 22.5\ngini = 0.1653\nsamples = 22\nvalue = [20, 2]"] ;
19 -> 20 ;
21 [label="X[10] <= 2703.5\ngini = 0.5\nsamples = 4\nvalue = [2, 2]"] ;
20 -> 21 ;
22 [label="gini = 0.0\nsamples = 2\nvalue = [0, 2]"] ;
21 -> 22 ;
23 [label="gini = 0.0\nsamples = 2\nvalue = [2, 0]"] ;
21 -> 23 ;
24 [label="gini = 0.0\nsamples = 18\nvalue = [18, 0]"] ;
20 -> 24 ;
25 [label="X[20] <= 2.5\ngini = 0.4861\nsamples = 12\nvalue = [7, 5]"] ;
19 -> 25 ;
26 [label="gini = 0.0\nsamples = 2\nvalue = [0, 2]"] ;
25 -> 26 ;
27 [label="X[11] <= 13902.5\ngini = 0.42\nsamples = 10\nvalue = [7, 3]"] ;
25 -> 27 ;
28 [label="gini = 0.0\nsamples = 6\nvalue = [6, 0]"] ;
27 -> 28 ;
29 [label="X[21] <= 0.5\ngini = 0.375\nsamples = 4\nvalue = [1, 3]"] ;
27 -> 29 ;
30 [label="gini = 0.0\nsamples = 1\nvalue = [1, 0]"] ;
29 -> 30 ;
31 [label="gini = 0.0\nsamples = 3\nvalue = [0, 3]"] ;
29 -> 31 ;
32 [label="X[30] <= 0.5\ngini = 0.1327\nsamples = 28\nvalue = [26, 2]"] ;
2 -> 32 ;
33 [label="X[20] <= 3.5\ngini = 0.0713\nsamples = 27\nvalue = [26, 1]"] ;
32 -> 33 ;
34 [label="gini = 0.0\nsamples = 25\nvalue = [25, 0]"] ;
33 -> 34 ;
35 [label="X[19] <= 1.5\ngini = 0.5\nsamples = 2\nvalue = [1, 1]"] ;
33 -> 35 ;
36 [label="gini = 0.0\nsamples = 1\nvalue = [1, 0]"] ;
35 -> 36 ;
37 [label="gini = 0.0\nsamples = 1\nvalue = [0, 1]"] ;
35 -> 37 ;
38 [label="gini = 0.0\nsamples = 1\nvalue = [0, 1]"] ;
32 -> 38 ;
39 [label="X[20] <= 1.5\ngini = 0.1536\nsamples = 966\nvalue = [885, 81]"] ;
1 -> 39 ;
40 [label="X[24] <= 0.5\ngini = 0.3702\nsamples = 53\nvalue = [40, 13]"] ;
39 -> 40 ;
41 [label="X[0] <= 44.0\ngini = 0.4082\nsamples = 7\nvalue = [2, 5]"] ;
40 -> 41 ;
42 [label="gini = 0.0\nsamples = 5\nvalue = [0, 5]"] ;
41 -> 42 ;
43 [label="gini = 0.0\nsamples = 2\nvalue = [2, 0]"] ;
41 -> 43 ;
44 [label="X[23] <= 6.0\ngini = 0.2873\nsamples = 46\nvalue = [38, 8]"] ;
40 -> 44 ;
45 [label="X[8] <= 1.5\ngini = 0.18\nsamples = 40\nvalue = [36, 4]"] ;
44 -> 45 ;
46 [label="X[18] <= 11.5\ngini = 0.4444\nsamples = 12\nvalue = [8, 4]"] ;
45 -> 46 ;
47 [label="X[18] <= 8.5\ngini = 0.5\nsamples = 8\nvalue = [4, 4]"] ;
46 -> 47 ;
48 [label="gini = 0.0\nsamples = 3\nvalue = [3, 0]"] ;
47 -> 48 ;
49 [label="X[14] <= 18.0\ngini = 0.32\nsamples = 5\nvalue = [1, 4]"] ;
47 -> 49 ;
50 [label="gini = 0.0\nsamples = 4\nvalue = [0, 4]"] ;
49 -> 50 ;
51 [label="gini = 0.0\nsamples = 1\nvalue = [1, 0]"] ;
49 -> 51 ;
52 [label="gini = 0.0\nsamples = 4\nvalue = [4, 0]"] ;
46 -> 52 ;
53 [label="gini = 0.0\nsamples = 28\nvalue = [28, 0]"] ;
45 -> 53 ;
54 [label="X[8] <= 2.5\ngini = 0.4444\nsamples = 6\nvalue = [2, 4]"] ;
44 -> 54 ;
55 [label="gini = 0.0\nsamples = 2\nvalue = [2, 0]"] ;
54 -> 55 ;
56 [label="gini = 0.0\nsamples = 4\nvalue = [0, 4]"] ;
54 -> 56 ;
57 [label="X[21] <= 38.5\ngini = 0.1379\nsamples = 913\nvalue = [845, 68]"] ;
39 -> 57 ;
58 [label="X[12] <= 4.5\ngini = 0.1361\nsamples = 912\nvalue = [845, 67]"] ;
57 -> 58 ;
59 [label="X[23] <= 14.5\ngini = 0.1075\nsamples = 702\nvalue = [662, 40]"] ;
58 -> 59 ;
60 [label="X[39] <= 0.5\ngini = 0.1031\nsamples = 697\nvalue = [659, 38]"] ;
59 -> 60 ;
61 [label="X[0] <= 43.5\ngini = 0.0939\nsamples = 668\nvalue = [635, 33]"] ;
60 -> 61 ;
62 [label="X[1] <= 1.5\ngini = 0.0671\nsamples = 518\nvalue = [500, 18]"] ;
61 -> 62 ;
63 [label="X[14] <= 11.5\ngini = 0.0473\nsamples = 413\nvalue = [403, 10]"] ;
62 -> 63 ;
64 [label="X[6] <= 1.5\ngini = 0.1305\nsamples = 57\nvalue = [53, 4]"] ;
63 -> 64 ;
65 [label="X[10] <= 8537.0\ngini = 0.5\nsamples = 2\nvalue = [1, 1]"] ;
64 -> 65 ;
66 [label="gini = 0.0\nsamples = 1\nvalue = [1, 0]"] ;
65 -> 66 ;
67 [label="gini = 0.0\nsamples = 1\nvalue = [0, 1]"] ;
65 -> 67 ;
68 [label="X[2] <= 6.5\ngini = 0.1031\nsamples = 55\nvalue = [52, 3]"] ;
64 -> 68 ;
69 [label="X[3] <= 1.5\ngini = 0.2268\nsamples = 23\nvalue = [20, 3]"] ;
68 -> 69 ;
70 [label="gini = 0.0\nsamples = 1\nvalue = [0, 1]"] ;
69 -> 70 ;
71 [label="X[35] <= 0.5\ngini = 0.1653\nsamples = 22\nvalue = [20, 2]"] ;
69 -> 71 ;
72 [label="X[22] <= 7.5\ngini = 0.095\nsamples = 20\nvalue = [19, 1]"] ;
71 -> 72 ;
73 [label="gini = 0.0\nsamples = 16\nvalue = [16, 0]"] ;
72 -> 73 ;
74 [label="X[8] <= 2.5\ngini = 0.375\nsamples = 4\nvalue = [3, 1]"] ;
72 -> 74 ;
75 [label="gini = 0.0\nsamples = 1\nvalue = [0, 1]"] ;
74 -> 75 ;
76 [label="gini = 0.0\nsamples = 3\nvalue = [3, 0]"] ;
74 -> 76 ;
77 [label="X[5] <= 0.5\ngini = 0.5\nsamples = 2\nvalue = [1, 1]"] ;
71 -> 77 ;
78 [label="gini = 0.0\nsamples = 1\nvalue = [0, 1]"] ;
77 -> 78 ;
79 [label="gini = 0.0\nsamples = 1\nvalue = [1, 0]"] ;
77 -> 79 ;
80 [label="gini = 0.0\nsamples = 32\nvalue = [32, 0]"] ;
68 -> 80 ;
81 [label="X[10] <= 2060.0\ngini = 0.0331\nsamples = 356\nvalue = [350, 6]"] ;
63 -> 81 ;
82 [label="X[10] <= 2051.5\ngini = 0.32\nsamples = 5\nvalue = [4, 1]"] ;
81 -> 82 ;
83 [label="gini = 0.0\nsamples = 4\nvalue = [4, 0]"] ;
82 -> 83 ;
84 [label="gini = 0.0\nsamples = 1\nvalue = [0, 1]"] ;
82 -> 84 ;
85 [label="X[17] <= 2.5\ngini = 0.0281\nsamples = 351\nvalue = [346, 5]"] ;
81 -> 85 ;
86 [label="X[16] <= 1.5\ngini = 0.0179\nsamples = 332\nvalue = [329, 3]"] ;
85 -> 86 ;
87 [label="X[2] <= 22.5\ngini = 0.0788\nsamples = 73\nvalue = [70, 3]"] ;
86 -> 87 ;
88 [label="X[33] <= 0.5\ngini = 0.0312\nsamples = 63\nvalue = [62, 1]"] ;
87 -> 88 ;
89 [label="gini = 0.0\nsamples = 54\nvalue = [54, 0]"] ;
88 -> 89 ;
90 [label="X[10] <= 4755.0\ngini = 0.1975\nsamples = 9\nvalue = [8, 1]"] ;
88 -> 90 ;
91 [label="gini = 0.0\nsamples = 8\nvalue = [8, 0]"] ;
90 -> 91 ;
92 [label="gini = 0.0\nsamples = 1\nvalue = [0, 1]"] ;
90 -> 92 ;
93 [label="X[8] <= 1.5\ngini = 0.32\nsamples = 10\nvalue = [8, 2]"] ;
87 -> 93 ;
94 [label="gini = 0.0\nsamples = 2\nvalue = [0, 2]"] ;
93 -> 94 ;
95 [label="gini = 0.0\nsamples = 8\nvalue = [8, 0]"] ;
93 -> 95 ;
96 [label="gini = 0.0\nsamples = 259\nvalue = [259, 0]"] ;
86 -> 96 ;
97 [label="X[14] <= 20.5\ngini = 0.1884\nsamples = 19\nvalue = [17, 2]"] ;
85 -> 97 ;
98 [label="X[22] <= 1.0\ngini = 0.1049\nsamples = 18\nvalue = [17, 1]"] ;
97 -> 98 ;
99 [label="X[16] <= 2.5\ngini = 0.5\nsamples = 2\nvalue = [1, 1]"] ;
98 -> 99 ;
100 [label="gini = 0.0\nsamples = 1\nvalue = [0, 1]"] ;
99 -> 100 ;
101 [label="gini = 0.0\nsamples = 1\nvalue = [1, 0]"] ;
99 -> 101 ;
102 [label="gini = 0.0\nsamples = 16\nvalue = [16, 0]"] ;
98 -> 102 ;
103 [label="gini = 0.0\nsamples = 1\nvalue = [0, 1]"] ;
97 -> 103 ;
104 [label="X[2] <= 28.5\ngini = 0.1408\nsamples = 105\nvalue = [97, 8]"] ;
62 -> 104 ;
105 [label="X[3] <= 4.5\ngini = 0.1118\nsamples = 101\nvalue = [95, 6]"] ;
104 -> 105 ;
106 [label="X[22] <= 0.5\ngini = 0.0959\nsamples = 99\nvalue = [94, 5]"] ;
105 -> 106 ;
107 [label="X[8] <= 3.5\ngini = 0.5\nsamples = 2\nvalue = [1, 1]"] ;
106 -> 107 ;
108 [label="gini = 0.0\nsamples = 1\nvalue = [0, 1]"] ;
107 -> 108 ;
109 [label="gini = 0.0\nsamples = 1\nvalue = [1, 0]"] ;
107 -> 109 ;
110 [label="X[8] <= 2.5\ngini = 0.0791\nsamples = 97\nvalue = [93, 4]"] ;
106 -> 110 ;
111 [label="X[14] <= 16.5\ngini = 0.2076\nsamples = 34\nvalue = [30, 4]"] ;
110 -> 111 ;
112 [label="gini = 0.0\nsamples = 20\nvalue = [20, 0]"] ;
111 -> 112 ;
113 [label="X[4] <= 2.5\ngini = 0.4082\nsamples = 14\nvalue = [10, 4]"] ;
111 -> 113 ;
114 [label="gini = 0.0\nsamples = 2\nvalue = [0, 2]"] ;
113 -> 114 ;
115 [label="X[23] <= 0.5\ngini = 0.2778\nsamples = 12\nvalue = [10, 2]"] ;
113 -> 115 ;
116 [label="X[5] <= 0.5\ngini = 0.4444\nsamples = 3\nvalue = [1, 2]"] ;
115 -> 116 ;
117 [label="gini = 0.0\nsamples = 2\nvalue = [0, 2]"] ;
116 -> 117 ;
118 [label="gini = 0.0\nsamples = 1\nvalue = [1, 0]"] ;
116 -> 118 ;
119 [label="gini = 0.0\nsamples = 9\nvalue = [9, 0]"] ;
115 -> 119 ;
120 [label="gini = 0.0\nsamples = 63\nvalue = [63, 0]"] ;
110 -> 120 ;
121 [label="X[15] <= 3.5\ngini = 0.5\nsamples = 2\nvalue = [1, 1]"] ;
105 -> 121 ;
122 [label="gini = 0.0\nsamples = 1\nvalue = [0, 1]"] ;
121 -> 122 ;
123 [label="gini = 0.0\nsamples = 1\nvalue = [1, 0]"] ;
121 -> 123 ;
124 [label="X[29] <= 0.5\ngini = 0.5\nsamples = 4\nvalue = [2, 2]"] ;
104 -> 124 ;
125 [label="gini = 0.0\nsamples = 2\nvalue = [2, 0]"] ;
124 -> 125 ;
126 [label="gini = 0.0\nsamples = 2\nvalue = [0, 2]"] ;
124 -> 126 ;
127 [label="X[10] <= 10687.5\ngini = 0.18\nsamples = 150\nvalue = [135, 15]"] ;
61 -> 127 ;
128 [label="X[10] <= 7589.5\ngini = 0.2558\nsamples = 93\nvalue = [79, 14]"] ;
127 -> 128 ;
129 [label="X[17] <= 0.5\ngini = 0.1713\nsamples = 74\nvalue = [67, 7]"] ;
128 -> 129 ;
130 [label="X[3] <= 2.5\ngini = 0.3122\nsamples = 31\nvalue = [25, 6]"] ;
129 -> 130 ;
131 [label="X[14] <= 15.0\ngini = 0.48\nsamples = 5\nvalue = [2, 3]"] ;
130 -> 131 ;
132 [label="gini = 0.0\nsamples = 2\nvalue = [2, 0]"] ;
131 -> 132 ;
133 [label="gini = 0.0\nsamples = 3\nvalue = [0, 3]"] ;
131 -> 133 ;
134 [label="X[0] <= 57.5\ngini = 0.2041\nsamples = 26\nvalue = [23, 3]"] ;
130 -> 134 ;
135 [label="X[8] <= 2.5\ngini = 0.1472\nsamples = 25\nvalue = [23, 2]"] ;
134 -> 135 ;
136 [label="X[22] <= 2.5\ngini = 0.375\nsamples = 8\nvalue = [6, 2]"] ;
135 -> 136 ;
137 [label="X[4] <= 3.5\ngini = 0.4444\nsamples = 3\nvalue = [1, 2]"] ;
136 -> 137 ;
138 [label="gini = 0.0\nsamples = 2\nvalue = [0, 2]"] ;
137 -> 138 ;
139 [label="gini = 0.0\nsamples = 1\nvalue = [1, 0]"] ;
137 -> 139 ;
140 [label="gini = 0.0\nsamples = 5\nvalue = [5, 0]"] ;
136 -> 140 ;
141 [label="gini = 0.0\nsamples = 17\nvalue = [17, 0]"] ;
135 -> 141 ;
142 [label="gini = 0.0\nsamples = 1\nvalue = [0, 1]"] ;
134 -> 142 ;
143 [label="X[2] <= 25.5\ngini = 0.0454\nsamples = 43\nvalue = [42, 1]"] ;
129 -> 143 ;
144 [label="gini = 0.0\nsamples = 40\nvalue = [40, 0]"] ;
143 -> 144 ;
145 [label="X[14] <= 14.5\ngini = 0.4444\nsamples = 3\nvalue = [2, 1]"] ;
143 -> 145 ;
146 [label="gini = 0.0\nsamples = 1\nvalue = [0, 1]"] ;
145 -> 146 ;
147 [label="gini = 0.0\nsamples = 2\nvalue = [2, 0]"] ;
145 -> 147 ;
148 [label="X[2] <= 7.5\ngini = 0.4654\nsamples = 19\nvalue = [12, 7]"] ;
128 -> 148 ;
149 [label="X[18] <= 31.5\ngini = 0.18\nsamples = 10\nvalue = [9, 1]"] ;
148 -> 149 ;
150 [label="gini = 0.0\nsamples = 9\nvalue = [9, 0]"] ;
149 -> 150 ;
151 [label="gini = 0.0\nsamples = 1\nvalue = [0, 1]"] ;
149 -> 151 ;
152 [label="X[2] <= 23.0\ngini = 0.4444\nsamples = 9\nvalue = [3, 6]"] ;
148 -> 152 ;
153 [label="X[21] <= 3.0\ngini = 0.2449\nsamples = 7\nvalue = [1, 6]"] ;
152 -> 153 ;
154 [label="gini = 0.0\nsamples = 1\nvalue = [1, 0]"] ;
153 -> 154 ;
155 [label="gini = 0.0\nsamples = 6\nvalue = [0, 6]"] ;
153 -> 155 ;
156 [label="gini = 0.0\nsamples = 2\nvalue = [2, 0]"] ;
152 -> 156 ;
157 [label="X[11] <= 25151.0\ngini = 0.0345\nsamples = 57\nvalue = [56, 1]"] ;
127 -> 157 ;
158 [label="gini = 0.0\nsamples = 55\nvalue = [55, 0]"] ;
157 -> 158 ;
159 [label="X[12] <= 2.0\ngini = 0.5\nsamples = 2\nvalue = [1, 1]"] ;
157 -> 159 ;
160 [label="gini = 0.0\nsamples = 1\nvalue = [0, 1]"] ;
159 -> 160 ;
161 [label="gini = 0.0\nsamples = 1\nvalue = [1, 0]"] ;
159 -> 161 ;
162 [label="X[20] <= 3.5\ngini = 0.2854\nsamples = 29\nvalue = [24, 5]"] ;
60 -> 162 ;
163 [label="X[8] <= 1.5\ngini = 0.2041\nsamples = 26\nvalue = [23, 3]"] ;
162 -> 163 ;
164 [label="X[10] <= 2949.5\ngini = 0.5\nsamples = 4\nvalue = [2, 2]"] ;
163 -> 164 ;
165 [label="gini = 0.0\nsamples = 2\nvalue = [2, 0]"] ;
164 -> 165 ;
166 [label="gini = 0.0\nsamples = 2\nvalue = [0, 2]"] ;
164 -> 166 ;
167 [label="X[6] <= 1.5\ngini = 0.0868\nsamples = 22\nvalue = [21, 1]"] ;
163 -> 167 ;
168 [label="X[4] <= 3.0\ngini = 0.5\nsamples = 2\nvalue = [1, 1]"] ;
167 -> 168 ;
169 [label="gini = 0.0\nsamples = 1\nvalue = [1, 0]"] ;
168 -> 169 ;
170 [label="gini = 0.0\nsamples = 1\nvalue = [0, 1]"] ;
168 -> 170 ;
171 [label="gini = 0.0\nsamples = 20\nvalue = [20, 0]"] ;
167 -> 171 ;
172 [label="X[16] <= 2.5\ngini = 0.4444\nsamples = 3\nvalue = [1, 2]"] ;
162 -> 172 ;
173 [label="gini = 0.0\nsamples = 1\nvalue = [1, 0]"] ;
172 -> 173 ;
174 [label="gini = 0.0\nsamples = 2\nvalue = [0, 2]"] ;
172 -> 174 ;
175 [label="X[19] <= 1.5\ngini = 0.48\nsamples = 5\nvalue = [3, 2]"] ;
59 -> 175 ;
176 [label="gini = 0.0\nsamples = 2\nvalue = [0, 2]"] ;
175 -> 176 ;
177 [label="gini = 0.0\nsamples = 3\nvalue = [3, 0]"] ;
175 -> 177 ;
178 [label="X[0] <= 33.5\ngini = 0.2241\nsamples = 210\nvalue = [183, 27]"] ;
58 -> 178 ;
179 [label="X[6] <= 2.5\ngini = 0.416\nsamples = 61\nvalue = [43, 18]"] ;
178 -> 179 ;
180 [label="X[14] <= 18.5\ngini = 0.4989\nsamples = 21\nvalue = [10, 11]"] ;
179 -> 180 ;
181 [label="X[21] <= 4.5\ngini = 0.4297\nsamples = 16\nvalue = [5, 11]"] ;
180 -> 181 ;
182 [label="X[19] <= 4.0\ngini = 0.1653\nsamples = 11\nvalue = [1, 10]"] ;
181 -> 182 ;
183 [label="gini = 0.0\nsamples = 9\nvalue = [0, 9]"] ;
182 -> 183 ;
184 [label="X[14] <= 16.0\ngini = 0.5\nsamples = 2\nvalue = [1, 1]"] ;
182 -> 184 ;
185 [label="gini = 0.0\nsamples = 1\nvalue = [1, 0]"] ;
184 -> 185 ;
186 [label="gini = 0.0\nsamples = 1\nvalue = [0, 1]"] ;
184 -> 186 ;
187 [label="X[12] <= 6.5\ngini = 0.32\nsamples = 5\nvalue = [4, 1]"] ;
181 -> 187 ;
188 [label="gini = 0.0\nsamples = 1\nvalue = [0, 1]"] ;
187 -> 188 ;
189 [label="gini = 0.0\nsamples = 4\nvalue = [4, 0]"] ;
187 -> 189 ;
190 [label="gini = 0.0\nsamples = 5\nvalue = [5, 0]"] ;
180 -> 190 ;
191 [label="X[4] <= 1.5\ngini = 0.2887\nsamples = 40\nvalue = [33, 7]"] ;
179 -> 191 ;
192 [label="X[8] <= 1.5\ngini = 0.4861\nsamples = 12\nvalue = [7, 5]"] ;
191 -> 192 ;
193 [label="X[37] <= 0.5\ngini = 0.32\nsamples = 5\nvalue = [1, 4]"] ;
192 -> 193 ;
194 [label="gini = 0.0\nsamples = 4\nvalue = [0, 4]"] ;
193 -> 194 ;
195 [label="gini = 0.0\nsamples = 1\nvalue = [1, 0]"] ;
193 -> 195 ;
196 [label="X[11] <= 21072.5\ngini = 0.2449\nsamples = 7\nvalue = [6, 1]"] ;
192 -> 196 ;
197 [label="gini = 0.0\nsamples = 6\nvalue = [6, 0]"] ;
196 -> 197 ;
198 [label="gini = 0.0\nsamples = 1\nvalue = [0, 1]"] ;
196 -> 198 ;
199 [label="X[16] <= 3.5\ngini = 0.1327\nsamples = 28\nvalue = [26, 2]"] ;
191 -> 199 ;
200 [label="gini = 0.0\nsamples = 18\nvalue = [18, 0]"] ;
199 -> 200 ;
201 [label="X[18] <= 5.5\ngini = 0.32\nsamples = 10\nvalue = [8, 2]"] ;
199 -> 201 ;
202 [label="gini = 0.0\nsamples = 1\nvalue = [0, 1]"] ;
201 -> 202 ;
203 [label="X[9] <= 0.5\ngini = 0.1975\nsamples = 9\nvalue = [8, 1]"] ;
201 -> 203 ;
204 [label="gini = 0.0\nsamples = 8\nvalue = [8, 0]"] ;
203 -> 204 ;
205 [label="gini = 0.0\nsamples = 1\nvalue = [0, 1]"] ;
203 -> 205 ;
206 [label="X[4] <= 1.5\ngini = 0.1135\nsamples = 149\nvalue = [140, 9]"] ;
178 -> 206 ;
207 [label="X[30] <= 0.5\ngini = 0.2688\nsamples = 25\nvalue = [21, 4]"] ;
206 -> 207 ;
208 [label="X[19] <= 3.5\ngini = 0.2188\nsamples = 24\nvalue = [21, 3]"] ;
207 -> 208 ;
209 [label="X[18] <= 7.5\ngini = 0.0997\nsamples = 19\nvalue = [18, 1]"] ;
208 -> 209 ;
210 [label="X[16] <= 1.5\ngini = 0.5\nsamples = 2\nvalue = [1, 1]"] ;
209 -> 210 ;
211 [label="gini = 0.0\nsamples = 1\nvalue = [1, 0]"] ;
210 -> 211 ;
212 [label="gini = 0.0\nsamples = 1\nvalue = [0, 1]"] ;
210 -> 212 ;
213 [label="gini = 0.0\nsamples = 17\nvalue = [17, 0]"] ;
209 -> 213 ;
214 [label="X[0] <= 39.5\ngini = 0.48\nsamples = 5\nvalue = [3, 2]"] ;
208 -> 214 ;
215 [label="gini = 0.0\nsamples = 2\nvalue = [0, 2]"] ;
214 -> 215 ;
216 [label="gini = 0.0\nsamples = 3\nvalue = [3, 0]"] ;
214 -> 216 ;
217 [label="gini = 0.0\nsamples = 1\nvalue = [0, 1]"] ;
207 -> 217 ;
218 [label="X[25] <= 0.5\ngini = 0.0774\nsamples = 124\nvalue = [119, 5]"] ;
206 -> 218 ;
219 [label="X[14] <= 20.5\ngini = 0.1866\nsamples = 48\nvalue = [43, 5]"] ;
218 -> 219 ;
220 [label="X[12] <= 8.5\ngini = 0.1298\nsamples = 43\nvalue = [40, 3]"] ;
219 -> 220 ;
221 [label="X[2] <= 1.5\ngini = 0.0512\nsamples = 38\nvalue = [37, 1]"] ;
220 -> 221 ;
222 [label="X[1] <= 1.5\ngini = 0.375\nsamples = 4\nvalue = [3, 1]"] ;
221 -> 222 ;
223 [label="gini = 0.0\nsamples = 3\nvalue = [3, 0]"] ;
222 -> 223 ;
224 [label="gini = 0.0\nsamples = 1\nvalue = [0, 1]"] ;
222 -> 224 ;
225 [label="gini = 0.0\nsamples = 34\nvalue = [34, 0]"] ;
221 -> 225 ;
226 [label="X[29] <= 0.5\ngini = 0.48\nsamples = 5\nvalue = [3, 2]"] ;
220 -> 226 ;
227 [label="gini = 0.0\nsamples = 3\nvalue = [3, 0]"] ;
226 -> 227 ;
228 [label="gini = 0.0\nsamples = 2\nvalue = [0, 2]"] ;
226 -> 228 ;
229 [label="X[2] <= 8.5\ngini = 0.48\nsamples = 5\nvalue = [3, 2]"] ;
219 -> 229 ;
230 [label="gini = 0.0\nsamples = 3\nvalue = [3, 0]"] ;
229 -> 230 ;
231 [label="gini = 0.0\nsamples = 2\nvalue = [0, 2]"] ;
229 -> 231 ;
232 [label="gini = 0.0\nsamples = 76\nvalue = [76, 0]"] ;
218 -> 232 ;
233 [label="gini = 0.0\nsamples = 1\nvalue = [0, 1]"] ;
57 -> 233 ;
234 [label="X[10] <= 2475.0\ngini = 0.4242\nsamples = 416\nvalue = [289, 127]"] ;
0 -> 234 [labeldistance=2.5, labelangle=-45, headlabel="False"] ;
235 [label="X[22] <= 2.5\ngini = 0.4234\nsamples = 69\nvalue = [21, 48]"] ;
234 -> 235 ;
236 [label="X[2] <= 11.5\ngini = 0.3289\nsamples = 53\nvalue = [11, 42]"] ;
235 -> 236 ;
237 [label="X[21] <= 3.5\ngini = 0.4244\nsamples = 36\nvalue = [11, 25]"] ;
236 -> 237 ;
238 [label="X[19] <= 5.5\ngini = 0.3367\nsamples = 28\nvalue = [6, 22]"] ;
237 -> 238 ;
239 [label="X[3] <= 3.5\ngini = 0.2688\nsamples = 25\nvalue = [4, 21]"] ;
238 -> 239 ;
240 [label="X[6] <= 1.5\ngini = 0.1653\nsamples = 22\nvalue = [2, 20]"] ;
239 -> 240 ;
241 [label="gini = 0.0\nsamples = 1\nvalue = [1, 0]"] ;
240 -> 241 ;
242 [label="X[0] <= 37.5\ngini = 0.0907\nsamples = 21\nvalue = [1, 20]"] ;
240 -> 242 ;
243 [label="gini = 0.0\nsamples = 18\nvalue = [0, 18]"] ;
242 -> 243 ;
244 [label="X[20] <= 2.5\ngini = 0.4444\nsamples = 3\nvalue = [1, 2]"] ;
242 -> 244 ;
245 [label="gini = 0.0\nsamples = 2\nvalue = [0, 2]"] ;
244 -> 245 ;
246 [label="gini = 0.0\nsamples = 1\nvalue = [1, 0]"] ;
244 -> 246 ;
247 [label="X[24] <= 1.0\ngini = 0.4444\nsamples = 3\nvalue = [2, 1]"] ;
239 -> 247 ;
248 [label="gini = 0.0\nsamples = 2\nvalue = [2, 0]"] ;
247 -> 248 ;
249 [label="gini = 0.0\nsamples = 1\nvalue = [0, 1]"] ;
247 -> 249 ;
250 [label="X[21] <= 1.5\ngini = 0.4444\nsamples = 3\nvalue = [2, 1]"] ;
238 -> 250 ;
251 [label="gini = 0.0\nsamples = 1\nvalue = [0, 1]"] ;
250 -> 251 ;
252 [label="gini = 0.0\nsamples = 2\nvalue = [2, 0]"] ;
250 -> 252 ;
253 [label="X[12] <= 2.5\ngini = 0.4688\nsamples = 8\nvalue = [5, 3]"] ;
237 -> 253 ;
254 [label="gini = 0.0\nsamples = 5\nvalue = [5, 0]"] ;
253 -> 254 ;
255 [label="gini = 0.0\nsamples = 3\nvalue = [0, 3]"] ;
253 -> 255 ;
256 [label="gini = 0.0\nsamples = 17\nvalue = [0, 17]"] ;
236 -> 256 ;
257 [label="X[4] <= 3.5\ngini = 0.4688\nsamples = 16\nvalue = [10, 6]"] ;
235 -> 257 ;
258 [label="X[4] <= 2.5\ngini = 0.4959\nsamples = 11\nvalue = [5, 6]"] ;
257 -> 258 ;
259 [label="X[11] <= 4851.5\ngini = 0.4082\nsamples = 7\nvalue = [5, 2]"] ;
258 -> 259 ;
260 [label="gini = 0.0\nsamples = 2\nvalue = [0, 2]"] ;
259 -> 260 ;
261 [label="gini = 0.0\nsamples = 5\nvalue = [5, 0]"] ;
259 -> 261 ;
262 [label="gini = 0.0\nsamples = 4\nvalue = [0, 4]"] ;
258 -> 262 ;
263 [label="gini = 0.0\nsamples = 5\nvalue = [5, 0]"] ;
257 -> 263 ;
264 [label="X[17] <= 0.5\ngini = 0.3517\nsamples = 347\nvalue = [268, 79]"] ;
234 -> 264 ;
265 [label="X[26] <= 0.5\ngini = 0.4614\nsamples = 144\nvalue = [92, 52]"] ;
264 -> 265 ;
266 [label="X[10] <= 4012.0\ngini = 0.3829\nsamples = 93\nvalue = [69, 24]"] ;
265 -> 266 ;
267 [label="X[33] <= 0.5\ngini = 0.4946\nsamples = 29\nvalue = [13, 16]"] ;
266 -> 267 ;
268 [label="X[24] <= 3.5\ngini = 0.4717\nsamples = 21\nvalue = [13, 8]"] ;
267 -> 268 ;
269 [label="X[29] <= 0.5\ngini = 0.3599\nsamples = 17\nvalue = [13, 4]"] ;
268 -> 269 ;
270 [label="X[0] <= 41.0\ngini = 0.142\nsamples = 13\nvalue = [12, 1]"] ;
269 -> 270 ;
271 [label="gini = 0.0\nsamples = 11\nvalue = [11, 0]"] ;
270 -> 271 ;
272 [label="X[24] <= 1.5\ngini = 0.5\nsamples = 2\nvalue = [1, 1]"] ;
270 -> 272 ;
273 [label="gini = 0.0\nsamples = 1\nvalue = [1, 0]"] ;
272 -> 273 ;
274 [label="gini = 0.0\nsamples = 1\nvalue = [0, 1]"] ;
272 -> 274 ;
275 [label="X[18] <= 7.5\ngini = 0.375\nsamples = 4\nvalue = [1, 3]"] ;
269 -> 275 ;
276 [label="gini = 0.0\nsamples = 3\nvalue = [0, 3]"] ;
275 -> 276 ;
277 [label="gini = 0.0\nsamples = 1\nvalue = [1, 0]"] ;
275 -> 277 ;
278 [label="gini = 0.0\nsamples = 4\nvalue = [0, 4]"] ;
268 -> 278 ;
279 [label="gini = 0.0\nsamples = 8\nvalue = [0, 8]"] ;
267 -> 279 ;
280 [label="X[12] <= 6.5\ngini = 0.2188\nsamples = 64\nvalue = [56, 8]"] ;
266 -> 280 ;
281 [label="X[19] <= 1.5\ngini = 0.1049\nsamples = 54\nvalue = [51, 3]"] ;
280 -> 281 ;
282 [label="X[18] <= 9.5\ngini = 0.48\nsamples = 5\nvalue = [3, 2]"] ;
281 -> 282 ;
283 [label="gini = 0.0\nsamples = 2\nvalue = [0, 2]"] ;
282 -> 283 ;
284 [label="gini = 0.0\nsamples = 3\nvalue = [3, 0]"] ;
282 -> 284 ;
285 [label="X[14] <= 22.5\ngini = 0.04\nsamples = 49\nvalue = [48, 1]"] ;
281 -> 285 ;
286 [label="gini = 0.0\nsamples = 47\nvalue = [47, 0]"] ;
285 -> 286 ;
287 [label="X[12] <= 3.0\ngini = 0.5\nsamples = 2\nvalue = [1, 1]"] ;
285 -> 287 ;
288 [label="gini = 0.0\nsamples = 1\nvalue = [0, 1]"] ;
287 -> 288 ;
289 [label="gini = 0.0\nsamples = 1\nvalue = [1, 0]"] ;
287 -> 289 ;
290 [label="X[19] <= 2.5\ngini = 0.5\nsamples = 10\nvalue = [5, 5]"] ;
280 -> 290 ;
291 [label="X[5] <= 0.5\ngini = 0.4082\nsamples = 7\nvalue = [2, 5]"] ;
290 -> 291 ;
292 [label="gini = 0.0\nsamples = 4\nvalue = [0, 4]"] ;
291 -> 292 ;
293 [label="X[0] <= 53.5\ngini = 0.4444\nsamples = 3\nvalue = [2, 1]"] ;
291 -> 293 ;
294 [label="gini = 0.0\nsamples = 2\nvalue = [2, 0]"] ;
293 -> 294 ;
295 [label="gini = 0.0\nsamples = 1\nvalue = [0, 1]"] ;
293 -> 295 ;
296 [label="gini = 0.0\nsamples = 3\nvalue = [3, 0]"] ;
290 -> 296 ;
297 [label="X[2] <= 11.0\ngini = 0.4952\nsamples = 51\nvalue = [23, 28]"] ;
265 -> 297 ;
298 [label="X[8] <= 3.5\ngini = 0.4844\nsamples = 34\nvalue = [20, 14]"] ;
297 -> 298 ;
299 [label="X[16] <= 3.5\ngini = 0.48\nsamples = 20\nvalue = [8, 12]"] ;
298 -> 299 ;
300 [label="X[0] <= 29.5\ngini = 0.2778\nsamples = 12\nvalue = [2, 10]"] ;
299 -> 300 ;
301 [label="X[11] <= 13607.0\ngini = 0.4444\nsamples = 3\nvalue = [2, 1]"] ;
300 -> 301 ;
302 [label="gini = 0.0\nsamples = 2\nvalue = [2, 0]"] ;
301 -> 302 ;
303 [label="gini = 0.0\nsamples = 1\nvalue = [0, 1]"] ;
301 -> 303 ;
304 [label="gini = 0.0\nsamples = 9\nvalue = [0, 9]"] ;
300 -> 304 ;
305 [label="X[1] <= 1.5\ngini = 0.375\nsamples = 8\nvalue = [6, 2]"] ;
299 -> 305 ;
306 [label="X[19] <= 1.5\ngini = 0.2449\nsamples = 7\nvalue = [6, 1]"] ;
305 -> 306 ;
307 [label="gini = 0.0\nsamples = 1\nvalue = [0, 1]"] ;
306 -> 307 ;
308 [label="gini = 0.0\nsamples = 6\nvalue = [6, 0]"] ;
306 -> 308 ;
309 [label="gini = 0.0\nsamples = 1\nvalue = [0, 1]"] ;
305 -> 309 ;
310 [label="X[19] <= 0.5\ngini = 0.2449\nsamples = 14\nvalue = [12, 2]"] ;
298 -> 310 ;
311 [label="X[24] <= 6.0\ngini = 0.4444\nsamples = 3\nvalue = [1, 2]"] ;
310 -> 311 ;
312 [label="gini = 0.0\nsamples = 2\nvalue = [0, 2]"] ;
311 -> 312 ;
313 [label="gini = 0.0\nsamples = 1\nvalue = [1, 0]"] ;
311 -> 313 ;
314 [label="gini = 0.0\nsamples = 11\nvalue = [11, 0]"] ;
310 -> 314 ;
315 [label="X[20] <= 1.5\ngini = 0.2907\nsamples = 17\nvalue = [3, 14]"] ;
297 -> 315 ;
316 [label="gini = 0.0\nsamples = 1\nvalue = [1, 0]"] ;
315 -> 316 ;
317 [label="X[22] <= 1.0\ngini = 0.2188\nsamples = 16\nvalue = [2, 14]"] ;
315 -> 317 ;
318 [label="X[5] <= 0.5\ngini = 0.48\nsamples = 5\nvalue = [2, 3]"] ;
317 -> 318 ;
319 [label="gini = 0.0\nsamples = 2\nvalue = [2, 0]"] ;
318 -> 319 ;
320 [label="gini = 0.0\nsamples = 3\nvalue = [0, 3]"] ;
318 -> 320 ;
321 [label="gini = 0.0\nsamples = 11\nvalue = [0, 11]"] ;
317 -> 321 ;
322 [label="X[7] <= 1.5\ngini = 0.2306\nsamples = 203\nvalue = [176, 27]"] ;
264 -> 322 ;
323 [label="X[22] <= 6.5\ngini = 0.3935\nsamples = 52\nvalue = [38, 14]"] ;
322 -> 323 ;
324 [label="X[20] <= 1.5\ngini = 0.3254\nsamples = 44\nvalue = [35, 9]"] ;
323 -> 324 ;
325 [label="X[16] <= 2.5\ngini = 0.48\nsamples = 5\nvalue = [2, 3]"] ;
324 -> 325 ;
326 [label="gini = 0.0\nsamples = 2\nvalue = [2, 0]"] ;
325 -> 326 ;
327 [label="gini = 0.0\nsamples = 3\nvalue = [0, 3]"] ;
325 -> 327 ;
328 [label="X[12] <= 8.5\ngini = 0.2604\nsamples = 39\nvalue = [33, 6]"] ;
324 -> 328 ;
329 [label="X[21] <= 0.5\ngini = 0.1975\nsamples = 36\nvalue = [32, 4]"] ;
328 -> 329 ;
330 [label="gini = 0.0\nsamples = 1\nvalue = [0, 1]"] ;
329 -> 330 ;
331 [label="X[26] <= 0.5\ngini = 0.1567\nsamples = 35\nvalue = [32, 3]"] ;
329 -> 331 ;
332 [label="X[19] <= 1.0\ngini = 0.1139\nsamples = 33\nvalue = [31, 2]"] ;
331 -> 332 ;
333 [label="X[12] <= 4.0\ngini = 0.5\nsamples = 2\nvalue = [1, 1]"] ;
332 -> 333 ;
334 [label="gini = 0.0\nsamples = 1\nvalue = [0, 1]"] ;
333 -> 334 ;
335 [label="gini = 0.0\nsamples = 1\nvalue = [1, 0]"] ;
333 -> 335 ;
336 [label="X[0] <= 24.5\ngini = 0.0624\nsamples = 31\nvalue = [30, 1]"] ;
332 -> 336 ;
337 [label="X[29] <= 0.5\ngini = 0.4444\nsamples = 3\nvalue = [2, 1]"] ;
336 -> 337 ;
338 [label="gini = 0.0\nsamples = 1\nvalue = [0, 1]"] ;
337 -> 338 ;
339 [label="gini = 0.0\nsamples = 2\nvalue = [2, 0]"] ;
337 -> 339 ;
340 [label="gini = 0.0\nsamples = 28\nvalue = [28, 0]"] ;
336 -> 340 ;
341 [label="X[6] <= 2.5\ngini = 0.5\nsamples = 2\nvalue = [1, 1]"] ;
331 -> 341 ;
342 [label="gini = 0.0\nsamples = 1\nvalue = [0, 1]"] ;
341 -> 342 ;
343 [label="gini = 0.0\nsamples = 1\nvalue = [1, 0]"] ;
341 -> 343 ;
344 [label="X[23] <= 1.0\ngini = 0.4444\nsamples = 3\nvalue = [1, 2]"] ;
328 -> 344 ;
345 [label="gini = 0.0\nsamples = 1\nvalue = [1, 0]"] ;
344 -> 345 ;
346 [label="gini = 0.0\nsamples = 2\nvalue = [0, 2]"] ;
344 -> 346 ;
347 [label="X[5] <= 0.5\ngini = 0.4688\nsamples = 8\nvalue = [3, 5]"] ;
323 -> 347 ;
348 [label="X[20] <= 3.5\ngini = 0.375\nsamples = 4\nvalue = [3, 1]"] ;
347 -> 348 ;
349 [label="gini = 0.0\nsamples = 3\nvalue = [3, 0]"] ;
348 -> 349 ;
350 [label="gini = 0.0\nsamples = 1\nvalue = [0, 1]"] ;
348 -> 350 ;
351 [label="gini = 0.0\nsamples = 4\nvalue = [0, 4]"] ;
347 -> 351 ;
352 [label="X[0] <= 23.0\ngini = 0.1574\nsamples = 151\nvalue = [138, 13]"] ;
322 -> 352 ;
353 [label="gini = 0.0\nsamples = 1\nvalue = [0, 1]"] ;
352 -> 353 ;
354 [label="X[10] <= 19853.0\ngini = 0.1472\nsamples = 150\nvalue = [138, 12]"] ;
352 -> 354 ;
355 [label="X[2] <= 12.5\ngini = 0.1368\nsamples = 149\nvalue = [138, 11]"] ;
354 -> 355 ;
356 [label="X[19] <= 5.5\ngini = 0.0396\nsamples = 99\nvalue = [97, 2]"] ;
355 -> 356 ;
357 [label="X[31] <= 0.5\ngini = 0.0206\nsamples = 96\nvalue = [95, 1]"] ;
356 -> 357 ;
358 [label="gini = 0.0\nsamples = 88\nvalue = [88, 0]"] ;
357 -> 358 ;
359 [label="X[24] <= 3.5\ngini = 0.2188\nsamples = 8\nvalue = [7, 1]"] ;
357 -> 359 ;
360 [label="gini = 0.0\nsamples = 1\nvalue = [0, 1]"] ;
359 -> 360 ;
361 [label="gini = 0.0\nsamples = 7\nvalue = [7, 0]"] ;
359 -> 361 ;
362 [label="X[3] <= 1.5\ngini = 0.4444\nsamples = 3\nvalue = [2, 1]"] ;
356 -> 362 ;
363 [label="gini = 0.0\nsamples = 1\nvalue = [0, 1]"] ;
362 -> 363 ;
364 [label="gini = 0.0\nsamples = 2\nvalue = [2, 0]"] ;
362 -> 364 ;
365 [label="X[28] <= 0.5\ngini = 0.2952\nsamples = 50\nvalue = [41, 9]"] ;
355 -> 365 ;
366 [label="X[4] <= 1.5\ngini = 0.2014\nsamples = 44\nvalue = [39, 5]"] ;
365 -> 366 ;
367 [label="X[23] <= 1.5\ngini = 0.4444\nsamples = 3\nvalue = [1, 2]"] ;
366 -> 367 ;
368 [label="gini = 0.0\nsamples = 1\nvalue = [1, 0]"] ;
367 -> 368 ;
369 [label="gini = 0.0\nsamples = 2\nvalue = [0, 2]"] ;
367 -> 369 ;
370 [label="X[0] <= 34.5\ngini = 0.1356\nsamples = 41\nvalue = [38, 3]"] ;
366 -> 370 ;
371 [label="X[22] <= 2.5\ngini = 0.4444\nsamples = 9\nvalue = [6, 3]"] ;
370 -> 371 ;
372 [label="X[0] <= 30.5\ngini = 0.48\nsamples = 5\nvalue = [2, 3]"] ;
371 -> 372 ;
373 [label="gini = 0.0\nsamples = 2\nvalue = [2, 0]"] ;
372 -> 373 ;
374 [label="gini = 0.0\nsamples = 3\nvalue = [0, 3]"] ;
372 -> 374 ;
375 [label="gini = 0.0\nsamples = 4\nvalue = [4, 0]"] ;
371 -> 375 ;
376 [label="gini = 0.0\nsamples = 32\nvalue = [32, 0]"] ;
370 -> 376 ;
377 [label="X[8] <= 3.5\ngini = 0.4444\nsamples = 6\nvalue = [2, 4]"] ;
365 -> 377 ;
378 [label="gini = 0.0\nsamples = 4\nvalue = [0, 4]"] ;
377 -> 378 ;
379 [label="gini = 0.0\nsamples = 2\nvalue = [2, 0]"] ;
377 -> 379 ;
380 [label="gini = 0.0\nsamples = 1\nvalue = [0, 1]"] ;
354 -> 380 ;
}